<?xml version="1.0"?>
<opencv_storage>
<cascade>
  <stageType>BOOST</stageType>
  <featureType>HAAR</featureType>
  <height>50</height>
  <width>50</width>
  <stageParams>
    <boostType>GAB</boostType>
    <minHitRate>9.9500000476837158e-01</minHitRate>
    <maxFalseAlarm>5.0000000000000000e-01</maxFalseAlarm>
    <weightTrimRate>9.4999999999999996e-01</weightTrimRate>
    <maxDepth>1</maxDepth>
    <maxWeakCount>100</maxWeakCount></stageParams>
  <featureParams>
    <maxCatCount>0</maxCatCount>
    <featSize>1</featSize>
    <mode>BASIC</mode></featureParams>
  <stageNum>7</stageNum>
  <stages>
    <!-- stage 0 -->
    <_>
      <maxWeakCount>3</maxWeakCount>
      <stageThreshold>2.2405424714088440e-01</stageThreshold>
      <weakClassifiers>
        <_>
          <internalNodes>
            0 -1 4 -2.4552911520004272e-01</internalNodes>
          <leafValues>
            8.6796534061431885e-01 -8.2629108428955078e-01</leafValues></_>
        <_>
          <internalNodes>
            0 -1 5 -8.1903417594730854e-05</internalNodes>
          <leafValues>
            -9.4162660837173462e-01 5.4233872890472412e-01</leafValues></_>
        <_>
          <internalNodes>
            0 -1 5 2.2848424850963056e-04</internalNodes>
          <leafValues>
            5.0800663232803345e-01 -9.3551164865493774e-01</leafValues></_></weakClassifiers></_>
    <!-- stage 1 -->
    <_>
      <maxWeakCount>5</maxWeakCount>
      <stageThreshold>-2.8162124752998352e-01</stageThreshold>
      <weakClassifiers>
        <_>
          <internalNodes>
            0 -1 8 -1.4607849880121648e-04</internalNodes>
          <leafValues>
            -9.4623655080795288e-01 6.6666668653488159e-01</leafValues></_>
        <_>
          <internalNodes>
            0 -1 8 9.8092830739915371e-05</internalNodes>
          <leafValues>
            5.3252679109573364e-01 -8.7851399183273315e-01</leafValues></_>
        <_>
          <internalNodes>
            0 -1 16 -3.1163483858108521e-01</internalNodes>
          <leafValues>
            6.6292405128479004e-01 -5.6516051292419434e-01</leafValues></_>
        <_>
          <internalNodes>
            0 -1 10 8.0843810792430304e-06</internalNodes>
          <leafValues>
            3.6206570267677307e-01 -9.5776873826980591e-01</leafValues></_>
        <_>
          <internalNodes>
            0 -1 7 -4.5518004299083259e-06</internalNodes>
          <leafValues>
            -9.1818761825561523e-01 3.3518338203430176e-01</leafValues></_></weakClassifiers></_>
    <!-- stage 2 -->
    <_>
      <maxWeakCount>4</maxWeakCount>
      <stageThreshold>-6.1075198650360107e-01</stageThreshold>
      <weakClassifiers>
        <_>
          <internalNodes>
            0 -1 10 -5.3236719395499676e-05</internalNodes>
          <leafValues>
            -8.9764869213104248e-01 7.8351038694381714e-01</leafValues></_>
        <_>
          <internalNodes>
            0 -1 7 7.4196723289787769e-05</internalNodes>
          <leafValues>
            5.7652229070663452e-01 -7.7092409133911133e-01</leafValues></_>
        <_>
          <internalNodes>
            0 -1 1 3.0125880584819242e-05</internalNodes>
          <leafValues>
            4.7425019741058350e-01 -9.3598675727844238e-01</leafValues></_>
        <_>
          <internalNodes>
            0 -1 0 -6.2251992523670197e-02</internalNodes>
          <leafValues>
            5.8357059955596924e-01 -5.8943611383438110e-01</leafValues></_></weakClassifiers></_>
    <!-- stage 3 -->
    <_>
      <maxWeakCount>3</maxWeakCount>
      <stageThreshold>-6.6323908977210522e-03</stageThreshold>
      <weakClassifiers>
        <_>
          <internalNodes>
            0 -1 6 2.1314426703611389e-06</internalNodes>
          <leafValues>
            6.6432255506515503e-01 -9.1181659698486328e-01</leafValues></_>
        <_>
          <internalNodes>
            0 -1 6 -2.1930147795501398e-06</internalNodes>
          <leafValues>
            -9.8746776580810547e-01 3.9305642247200012e-01</leafValues></_>
        <_>
          <internalNodes>
            0 -1 15 -1.6164639964699745e-02</internalNodes>
          <leafValues>
            5.1212775707244873e-01 -7.1195590496063232e-01</leafValues></_></weakClassifiers></_>
    <!-- stage 4 -->
    <_>
      <maxWeakCount>3</maxWeakCount>
      <stageThreshold>-1.1978629976511002e-02</stageThreshold>
      <weakClassifiers>
        <_>
          <internalNodes>
            0 -1 9 4.2122189188376069e-04</internalNodes>
          <leafValues>
            7.6643073558807373e-01 -8.5318559408187866e-01</leafValues></_>
        <_>
          <internalNodes>
            0 -1 11 -4.6174095587048214e-06</internalNodes>
          <leafValues>
            -9.6028155088424683e-01 4.8533564805984497e-01</leafValues></_>
        <_>
          <internalNodes>
            0 -1 12 -2.9218885174486786e-05</internalNodes>
          <leafValues>
            -9.3023765087127686e-01 3.5587131977081299e-01</leafValues></_></weakClassifiers></_>
    <!-- stage 5 -->
    <_>
      <maxWeakCount>3</maxWeakCount>
      <stageThreshold>-8.4933005273342133e-03</stageThreshold>
      <weakClassifiers>
        <_>
          <internalNodes>
            0 -1 13 1.3592259492725134e-03</internalNodes>
          <leafValues>
            6.5435606241226196e-01 -8.1972789764404297e-01</leafValues></_>
        <_>
          <internalNodes>
            0 -1 2 -4.5252832023834344e-06</internalNodes>
          <leafValues>
            -8.8184875249862671e-01 4.3878161907196045e-01</leafValues></_>
        <_>
          <internalNodes>
            0 -1 14 2.2201083993422799e-06</internalNodes>
          <leafValues>
            3.7245297431945801e-01 -9.4952422380447388e-01</leafValues></_></weakClassifiers></_>
    <!-- stage 6 -->
    <_>
      <maxWeakCount>1</maxWeakCount>
      <stageThreshold>6.4646464586257935e-01</stageThreshold>
      <weakClassifiers>
        <_>
          <internalNodes>
            0 -1 3 1.9347114630363649e-06</internalNodes>
          <leafValues>
            6.4646464586257935e-01 -9.7318005561828613e-01</leafValues></_></weakClassifiers></_></stages>
  <features>
    <_>
      <rects>
        <_>
          0 18 50 6 -1.</_>
        <_>
          25 18 25 6 2.</_></rects>
      <tilted>0</tilted></_>
    <_>
      <rects>
        <_>
          0 23 26 9 -1.</_>
        <_>
          13 23 13 9 2.</_></rects>
      <tilted>0</tilted></_>
    <_>
      <rects>
        <_>
          1 22 21 12 -1.</_>
        <_>
          8 22 7 12 3.</_></rects>
      <tilted>0</tilted></_>
    <_>
      <rects>
        <_>
          1 47 30 2 -1.</_>
        <_>
          16 47 15 2 2.</_></rects>
      <tilted>0</tilted></_>
    <_>
      <rects>
        <_>
          2 3 48 47 -1.</_>
        <_>
          26 3 24 47 2.</_></rects>
      <tilted>0</tilted></_>
    <_>
      <rects>
        <_>
          2 38 9 8 -1.</_>
        <_>
          2 42 9 4 2.</_></rects>
      <tilted>0</tilted></_>
    <_>
      <rects>
        <_>
          2 41 6 9 -1.</_>
        <_>
          4 41 2 9 3.</_></rects>
      <tilted>0</tilted></_>
    <_>
      <rects>
        <_>
          2 48 18 2 -1.</_>
        <_>
          8 48 6 2 3.</_></rects>
      <tilted>0</tilted></_>
    <_>
      <rects>
        <_>
          3 24 5 26 -1.</_>
        <_>
          3 37 5 13 2.</_></rects>
      <tilted>0</tilted></_>
    <_>
      <rects>
        <_>
          3 25 5 24 -1.</_>
        <_>
          3 37 5 12 2.</_></rects>
      <tilted>0</tilted></_>
    <_>
      <rects>
        <_>
          4 45 6 5 -1.</_>
        <_>
          7 45 3 5 2.</_></rects>
      <tilted>0</tilted></_>
    <_>
      <rects>
        <_>
          6 27 2 18 -1.</_>
        <_>
          6 36 2 9 2.</_></rects>
      <tilted>0</tilted></_>
    <_>
      <rects>
        <_>
          7 0 4 15 -1.</_>
        <_>
          7 5 4 5 3.</_></rects>
      <tilted>0</tilted></_>
    <_>
      <rects>
        <_>
          7 0 5 15 -1.</_>
        <_>
          7 5 5 5 3.</_></rects>
      <tilted>0</tilted></_>
    <_>
      <rects>
        <_>
          7 48 9 2 -1.</_>
        <_>
          10 48 3 2 3.</_></rects>
      <tilted>0</tilted></_>
    <_>
      <rects>
        <_>
          14 47 36 3 -1.</_>
        <_>
          32 47 18 3 2.</_></rects>
      <tilted>0</tilted></_>
    <_>
      <rects>
        <_>
          16 1 34 49 -1.</_>
        <_>
          33 1 17 49 2.</_></rects>
      <tilted>0</tilted></_></features></cascade>
</opencv_storage>
